-0.07480198039293816
0.5576042164326841
-0.34926018662169
0.14878423508804278
-0.360706176437749
-0.908824659432708
0.01796120185914413
-0.051769312427862875
-0.209148859254836
0.401135477549471
0.12688094093875515
0.3650791039375344
0.25314195947558016
0.015375477758449515
-0.23283330449206424
-0.09688734854997261
0.06290480792863015
-0.16925386778129356
-0.5745183732867497
-0.28405869488536617
0.6137472658152451
0.24088924970024744
-0.447153142305612
-0.1179715128867375
0.2956411034095634
0.10443499495692732
0.18880805309143714
0.3328453434711956
-0.245897705824687
0.3828466941900763
0.23182500607954598
0.2542888255849326
-0.808868978482274
0.1387958039424351
0.2582802228084723
-0.330256078879059
-0.27355445204613443
0.458225902866531
-0.7076218470372277
0.20582777583987458
-0.03753952415301738
0.14880316113268255
0.47063620775439863
-0.17715795939119788
0.22611944958292898
-0.4749248600507318
-0.44699013591271464
0.16021897244573874
-0.2650278711348582
-0.27120012991370296
0.10479824128711814
-0.7316650928602149
-0.13299827056119803
0.03524472715020092
0.03077024905833112
-0.4802689945252463
-0.3426201350140726
-0.02884548943220632
0.34708274949495693
-0.5569982408139378
-0.486936725038429
-0.3371606139321793
-0.42497756691355526
-0.3903392421689335
-0.10719547577311084
0.5531484105900036
0.14949876203161275
-0.17734563754995966
0.5104910921087401
-0.18172428941486793
-0.5542752405529194
0.22491081252898582
0.13311284540617704
0.24784749568338585
0.2336438950091282
0.0270060940349997
-0.17253825771211884
0.36857371534029293
0.43431151024156955
-0.5017213237459666
