0.29335657819775296
0.06366002786793999
0.39225435543958176
0.013274571838194662
-0.3857360303615988
-0.0004939956813721262
-0.4645680077550593
-0.4724017362399787
0.45541338241239493
0.19356557954148945
0.13525975213986927
0.18882001714150107
0.041275965950191305
-0.19520107137256174
0.08967497083419651
0.255901230178329
-0.07610726861447892
0.4218820283882338
-0.2403809230855763
-0.025817950475153117
-0.009776769128054459
-0.16992486408701388
0.24060100007436094
0.4354376149902485
0.3386799516311834
-0.4997082297890412
0.4216113705012889
-0.43208442176643447
0.14776828232193046
-0.17009305708241892
0.12519342228833455
0.2879041257543201
-0.3238433508147156
-0.45311851840937134
-0.3442914475653369
0.00031887120530046096
0.04609913566807987
0.30636681291992623
-0.046432196146623105
-0.21426641341000055
0.3756044618342123
0.1785450239252224
-0.08832826822064899
-0.3881518917795051
-0.523924877223653
-0.32387551377818097
0.33385073146981065
-0.20793588450626305
0.35990614281872957
0.002420236678260604
-0.47594369147369564
-0.28834880413184627
-0.0929308241545135
0.1273477873598889
-0.41045049766663416
0.1336134690987271
0.21474003495334604
0.42534140702109785
0.43369111129956434
0.1620120796484248
0.3992295151305414
-0.4828636294787229
-0.026683124325460442
-0.20314993384956187
0.45572371437464654
0.11061827149581263
-0.35653773762715457
-0.41522146482840644
-0.453348335811618
-0.4970488320264684
-0.42347271594703034
-0.21612171755416493
-0.2912876972899794
-0.4156446588364639
-0.051949893244102194
0.02527786327900058
-0.16142667590934157
-0.44621420778856297
-0.05405386019478154
0.0014200492837271087
-0.4751299712326207
0.12713821319528276
0.33285082482394435
-0.16140542067322214
0.14302650609630435
-0.13893150676187127
0.20192921068778974
-0.11373170440585023
0.054733710875543184
0.20465331998922595
0.03502178909648773
0.018833452202447767
0.3219044725824939
0.25653544599474454
-0.5328951527517974
-0.3355601301425321
0.11976611585112569
0.3531901198904265
0.2700644720947054
-0.01132980701010415
0.257048539179624
-0.4418562494996776
-0.441540929297084
-0.41240515328558236
-0.09225007579252498
-0.46661046817995555
-0.2463404117613896
-0.15343174618755498
0.42065080033143926
0.0798481857146976
0.14959268845828083
-0.3985916097908558
0.18902855402100968
-0.32257151362180764
0.22942355728619715
0.04693091054434805
0.44078444042627535
0.03865840317048852
0.3754970268834742
0.2700687116650632
-0.33609254441343683
-0.41837758651761253
0.17891285372683205
-0.21219240048875734
-0.3476654936426542
0.34691932664213926
0.5167590104861713
0.2138122462875148
0.1877931875200837
-0.0749185015972822
-0.395056437472105
0.25712403359727504
0.1778339839394999
-0.1750538896768276
-0.4194326043795339
0.46205933074376304
0.17913969625403128
0.16948634674954874
-0.4194344007777927
-0.13478322486177027
-0.4280005875223744
-0.10720038088090457
-0.20792816658106186
-0.0754987091456805
-0.2232083730437179
-0.3394311219073513
0.44503185062471784
0.08191278680510276
0.18637612718449081
0.05386004531870589
-0.3756069579900481
-0.3124147522919147
0.3798515700136111
-0.2679859588899408
-0.10781927421129521
-0.42631874650498836
-0.03723894737010367
0.07142109414777222
0.22948395091293866
0.10953533759137243
-0.0606639199749905
-0.477068075309526
0.03425169320550444
-0.1586855253960194
0.4604567383887732
0.509328961098017
0.2547469053291554
0.2734350986246095
0.18122088291654095
-0.4355578026860059
0.453947431635416
0.42460522826655883
0.3892652339156174
-0.07908407070874704
-0.09356032458814242
0.36399788662969706
-0.4407551090479222
0.2520148208459354
0.45253198757604424
0.3546874132015821
-0.0811367115498396
-0.12950362801326673
0.026552110984786634
0.5192527040673517
-0.17957987005807224
-0.05418777045271164
-0.3858547875611353
-0.32835408509204395
0.4826692035769228
0.013698887852954157
0.31743225211502074
-0.32040622011138403
0.30443999200577626
0.1354879490360838
-0.3816252961412367
0.17674134421905113
-0.19110432547048897
-0.16391799127242934
-0.2834746417276267
0.09164440295312169
-0.38063742129631617
0.20462229215214867
0.37821743316733825
0.3000633441990636
-0.3253298714985083
0.32507421074668225
-0.37620479778718535
0.38390031858727364
-0.05059157247800019
-0.06694970521856647
0.12464398809409287
0.025914873198866786
0.33149678217720197
-0.4710021272010828
0.09530464154492461
0.015484904556942184
-0.22592692555540908
-0.2681859974529737
0.3306633145218206
0.46432269569876045
-0.0510899632266926
0.23681964653431287
-0.07412170141005664
-0.48795216964321686
-0.3357400442786947
-0.3795058470775357
0.03389482072073644
-0.1462517710126708
-0.24434019828331519
-0.41322657166355287
-0.41820689638742314
-0.2346082538629342
-0.24749022506480622
-0.4383328196812304
-0.1662604020475538
-0.29647694948830977
0.3153803816237586
-0.14187615577192367
0.399159068702271
0.3690763777927425
0.20724290314226526
-0.17375702859176634
0.47668131452455353
0.42109035328419847
-0.45715942717480507
0.21813726861027155
-0.10270787516964537
-0.4392625168894705
-0.3446147341722275
0.1971278537276943
-0.3134601384838964
-0.48915479608081014
0.012944913985381829
-0.34361940995021073
0.2210842406170437
-0.20042007787815624
0.43848679533494017
0.35053796939648496
-0.005207766015845959
-0.4352798198593912
0.4810075596009919
0.3633700393406436
0.1301764612958158
0.23655067998744303
-0.035908934348672324
-0.21482354151144345
-0.3910568615957905
-0.3085933008475894
-0.26982588621428827
-0.3364257105057017
-0.20634256304878998
0.4719933234682894
-0.3038773118340789
0.458697770754752
-0.33112224684095326
-0.293258939137374
-0.027815232666080394
0.43598275625761007
0.38487726545955114
0.2561588940559784
0.4411714326985108
0.27425392779491636
-0.3354437517039311
-0.0898877213307717
-0.39596857464720114
0.2893706945833563
0.23178057588525347
0.16646549075445194
